<?xml version="1.0"?>
<opencv_storage>
<cascade>
  <stageType>BOOST</stageType>
  <featureType>LBP</featureType>
  <height>32</height>
  <width>38</width>
  <stageParams>
    <boostType>GAB</boostType>
    <minHitRate>9.9500000476837158e-01</minHitRate>
    <maxFalseAlarm>5.0000000000000000e-01</maxFalseAlarm>
    <weightTrimRate>9.4999999999999996e-01</weightTrimRate>
    <maxDepth>1</maxDepth>
    <maxWeakCount>100</maxWeakCount></stageParams>
  <featureParams>
    <maxCatCount>256</maxCatCount>
    <featSize>1</featSize></featureParams>
  <stageNum>8</stageNum>
  <stages>
    <!-- stage 0 -->
    <_>
      <maxWeakCount>1</maxWeakCount>
      <stageThreshold>9.8511165380477905e-01</stageThreshold>
      <weakClassifiers>
        <_>
          <internalNodes>
            0 -1 0 -788414358 -1861549800 131153 -787279487 134916234
            -1995964413 -2147319634 -74737509</internalNodes>
          <leafValues>
            -1. 9.8511165380477905e-01</leafValues></_></weakClassifiers></_>
    <!-- stage 1 -->
    <_>
      <maxWeakCount>1</maxWeakCount>
      <stageThreshold>9.8019802570343018e-01</stageThreshold>
      <weakClassifiers>
        <_>
          <internalNodes>
            0 -1 1 -242221601 -183397366 -2147450805 -578056191
            -460798981 -393564024 -1879013217 -15998913</internalNodes>
          <leafValues>
            -1. 9.8019802570343018e-01</leafValues></_></weakClassifiers></_>
    <!-- stage 2 -->
    <_>
      <maxWeakCount>1</maxWeakCount>
      <stageThreshold>9.8507463932037354e-01</stageThreshold>
      <weakClassifiers>
        <_>
          <internalNodes>
            0 -1 4 -178394625 -787263457 -1072868587 -48791273
            -2071543111 -1702641655 -670921265 -34094957</internalNodes>
          <leafValues>
            -9.9484539031982422e-01 9.8507463932037354e-01</leafValues></_></weakClassifiers></_>
    <!-- stage 3 -->
    <_>
      <maxWeakCount>1</maxWeakCount>
      <stageThreshold>9.7044336795806885e-01</stageThreshold>
      <weakClassifiers>
        <_>
          <internalNodes>
            0 -1 6 -753798153 -207255933 214679 -572022113 -804026145
            -1356660336 -306583377 -572798742</internalNodes>
          <leafValues>
            -1. 9.7044336795806885e-01</leafValues></_></weakClassifiers></_>
    <!-- stage 4 -->
    <_>
      <maxWeakCount>1</maxWeakCount>
      <stageThreshold>9.7530865669250488e-01</stageThreshold>
      <weakClassifiers>
        <_>
          <internalNodes>
            0 -1 2 1364582391 -1611722836 504389629 -539144440 403224039
            -1276372115 -1466262790 -555107425</internalNodes>
          <leafValues>
            -1. 9.7530865669250488e-01</leafValues></_></weakClassifiers></_>
    <!-- stage 5 -->
    <_>
      <maxWeakCount>1</maxWeakCount>
      <stageThreshold>9.9004977941513062e-01</stageThreshold>
      <weakClassifiers>
        <_>
          <internalNodes>
            0 -1 5 -645530113 -711871861 -981133941 -16613215 1611493467
            -276492149 -181548645 -5260625</internalNodes>
          <leafValues>
            -1. 9.9004977941513062e-01</leafValues></_></weakClassifiers></_>
    <!-- stage 6 -->
    <_>
      <maxWeakCount>1</maxWeakCount>
      <stageThreshold>9.7524750232696533e-01</stageThreshold>
      <weakClassifiers>
        <_>
          <internalNodes>
            0 -1 3 491243487 -1444288209 51234143 -1694515105
            -2105243237 -1306672288 -888538633 -5517401</internalNodes>
          <leafValues>
            -9.9481862783432007e-01 9.7524750232696533e-01</leafValues></_></weakClassifiers></_>
    <!-- stage 7 -->
    <_>
      <maxWeakCount>1</maxWeakCount>
      <stageThreshold>9.7037035226821899e-01</stageThreshold>
      <weakClassifiers>
        <_>
          <internalNodes>
            0 -1 7 -1887448623 -1864789675 -721336507 -1248398797
            -1450460249 -1695260429 -915932317 -1346900997</internalNodes>
          <leafValues>
            -9.9480521678924561e-01 9.7037035226821899e-01</leafValues></_></weakClassifiers></_></stages>
  <features>
    <_>
      <rect>
        0 2 6 7</rect></_>
    <_>
      <rect>
        2 4 8 7</rect></_>
    <_>
      <rect>
        5 4 9 3</rect></_>
    <_>
      <rect>
        6 6 5 4</rect></_>
    <_>
      <rect>
        7 0 8 5</rect></_>
    <_>
      <rect>
        7 16 7 5</rect></_>
    <_>
      <rect>
        12 1 8 6</rect></_>
    <_>
      <rect>
        12 3 6 3</rect></_></features></cascade>
</opencv_storage>
